svm_type c_svc
kernel_type rbf
gamma 1.4
nr_class 2
total_sv 11
rho -6.79343
label 1 -1
nr_sv 6 5
SV
100 1:0.39795918 2:-0.23469388 
5.340029659836018 1:-0.31632653 2:-0.21428571 
19.52867617831676 1:-0.29591837 2:-0.091836735 
100 1:0.33673469 2:-0.030612245 
17.44368143074501 1:0.21428571 2:0.19387755 
100 1:-0.051020408 2:0.25510204 
-73.66740712499897 1:0.41836735 2:-0.39795918 
-63.27086015100919 1:0.2755102 2:-0.091836735 
-100 1:0.21428571 2:0.071428571 
-5.374119992889636 1:-0.051020408 2:0.1122449 
-100 1:-0.030612245 2:0.17346939 
